<?xml version="1.0"?>
<opencv_storage>
<opencv_ml_ann_mlp>
  <format>3</format>
  <layer_sizes>
    32 23 2</layer_sizes>
  <activation_function>SIGMOID_SYM</activation_function>
  <f_param1>0.66666666666666663</f_param1>
  <f_param2>1.7159</f_param2>
  <min_val>-0.94999999999999996</min_val>
  <max_val>0.94999999999999996</max_val>
  <min_val1>-0.97999999999999998</min_val1>
  <max_val1>0.97999999999999998</max_val1>
  <training_params>
    <train_method>BACKPROP</train_method>
    <dw_scale>0.01</dw_scale>
    <moment_scale>0.01</moment_scale>
    <term_criteria>
      <epsilon>0.01</epsilon>
      <iterations>1000</iterations></term_criteria></training_params>
  <input_scale>
    2.932003130559437 -1.5584165506310903 4.9434735809231736
    -2.7254996913854344 5.0636928791557407 -3.3428041001392588
    2.9942044002779764 -1.1921880108841441 4.2392361025913292
    -1.7158265838600448 3.0273669231411264 -1.7532710379353809
    4.4800709622940209 -2.7116153661105726 3.9076257785890149
    -2.0636123805693307 2.6480590315265973 -1.3203607169015446
    3.9316460294090776 -2.4715398620846538 3.6973898936991589
    -2.0612477120613155 4.144470542803095 -1.8245705562073109
    3.2007642239973366 -1.251093601184349 4.1827663979433591
    -2.5137360201644343 4.3284598145569673 -2.1259388560861945
    5.3512216732763411 -3.1614537892558952 3.7651565324103959
    -2.7303239213634685 3.4519830231526334 -1.6259229051033297
    3.2216041571654248 -1.9952283357705398 4.1827736317530899
    -2.146757077309025 3.8308818536081644 -2.5372862520988386
    3.2472226065901517 -1.6744088441800469 3.8166629105455594
    -2.0026911710112838 4.8116805634443427 -2.232254536651562
    4.5150046055020878 -1.9776049425687781 3.4702294811357195
    -1.9377217744768067 3.875620356273711 -1.467101785666163
    3.8991265553890684 -2.2943013704178528 3.4678788459996284
    -2.00833521969638 3.554955568517836 -2.1268740391069665
    3.7943936388967936 -1.7292271102318975 2.984823987977415
    -1.4432406396606177</input_scale>
  <output_scale>
    0.52631578947368418 0.49999999999999994 0.52631578947368418
    0.49999999999999994</output_scale>
  <inv_output_scale>
    1.8999999999999999 -0.94999999999999996 1.8999999999999999
    -0.94999999999999996</inv_output_scale>
  <weights>
    <_>
      -0.065522832892068367 -0.016666930968004541 -0.004327643960897967
      0.038349376283803478 0.047665303221427952 0.00011619674990100633
      0.051846600664381549 0.038746911912384399 -0.093961702378864628
      0.011135550238208041 0.012119004255299624 -0.081329826363102833
      -0.04809848554305006 0.010431781652530581 0.019586956878358094
      -0.060160437485563899 -0.028934321669713273 0.0094094487165774579
      0.086987495731904133 -0.037976035950553523 0.053503638350808035
      -0.0021681273195685701 -0.021180050172423859 0.011758887952455853
      0.017982886720497793 -0.028226846751397219 0.030539901747020828
      0.014990749726798773 0.019371134366982557 0.043230912420147892
      0.013421182056378211 -0.044925772338576524 -0.055235454902550267
      -0.056566704367561255 0.049708731459056493 0.054492608915268387
      -0.0014692191911581775 0.010971802352152773 0.023266527206886638
      -0.0078207251825787027 0.0055685658511054181 -0.039334548739511012
      0.046161976319524532 0.017824727729420672 -0.041330315047471665
      -0.039248384685069172 -0.0060289440935993475 -0.01231280055419642
      0.071735709875602946 0.047648230027013419 -0.00076094782628196482
      0.037597415305578398 0.012080828073372005 -0.022039222405878658
      0.01251453421533485 -0.024331993205456471 -0.043816912803401026
      -0.030237520271811001 -0.0028495272469715822 0.034383500729492339
      -0.057990438076711733 0.022709911378938873 -0.024217033382425222
      -0.0081393870701943222 0.0080463789633356646 0.017158875039088164
      0.00025785749753725966 0.051242037500791086 0.00035762934262043109
      -0.023796876181141992 0.0092068653494943378
      -0.00018684069963884682 0.023440087246870377 0.05994476060619805
      -0.0020632048355930417 -0.046487711005466219 0.04905530104254481
      -0.026798295824113378 -0.022349998712172154 -0.016491050024669437
      0.019366847483455379 0.032165519631302375 -0.018777958595234748
      -0.062052620174917923 0.095933758031414518 0.046128810154269319
      0.028537142665096448 -0.046931454181432485 0.064982916990484071
      0.015483219697287257 0.05452709511511375 -0.034647438916795441
      -0.010143198716046395 0.11268292081367116 0.044360799991849283
      0.001557520248597526 0.029270387409241105 -0.034445381144388963
      0.00048418057016321137 -0.035678874634970777 0.024375380792542874
      0.0023089927825951759 -0.038185359843836864 0.081563039901551962
      0.039793876066904502 -0.029016293390389233 -0.078175040322591857
      0.018571821183181198 0.14168658831230763 0.021520341832162705
      -0.080184623631866958 0.054321532561278946 -0.10767615155422645
      0.091678218960488986 0.05691471396381851 -0.0065118255648611836
      0.039571605516234912 -0.016281724980073436 -0.037985281818945442
      0.040043044018222972 0.01237212069748005 -0.022682055115986317
      -0.032145127892377001 0.055162660913843455 0.0056145285449074123
      -0.021863879308218235 0.036606190686710345 0.033931866299593633
      0.054477552697991302 -0.021613700951214648 -0.012698803784238785
      0.05724502609124392 0.032933621799663304 -0.0013515134720690459
      0.02707571369369851 -0.060074088828355576 0.064874038771963044
      -0.017896469555702021 0.013006870022334147 -0.010512989559708833
      -0.027266485915175075 -0.036615129893263515 0.038501300540642346
      0.050693073838476439 0.041735715278436898 0.0050474130265081843
      -0.065078915316881619 0.052537103597139347 0.10394165943927076
      -0.10631019306874601 0.041140774275306616 0.014260654517435408
      0.02870451533258396 -0.10486670177153171 -0.023531643779764102
      -0.0043703549538748158 0.032152497496850112 -0.038664274210781752
      0.029976240953877391 -0.11337266274194019 -0.017261584976605886
      -0.018464268858009402 -0.04597546646807673 -0.012526574255427306
      -0.019057581228006083 -0.030721591280205292 3.570119573105606e-05
      -0.054039669769633598 -0.00057787299074319343 0.056602441301307663
      -0.040627417778304149 0.014120123642795225 0.018056215981745369
      -0.048403537301998055 0.054693810407024777 -0.053817386096961933
      0.015801784596341923 -0.01064801538873137 -0.056393597966223522
      -0.053386202802682636 0.06185674763902712 0.022408894810347042
      -0.021374175414041487 0.022088672135975065 -0.050576183954775658
      -0.10703598643529275 -0.11535744257529143 0.045646275757869406
      0.022489671512533428 -0.028897670245058019 0.011695581802829549
      0.056814534749295653 -0.060273912645762186 -0.045005686735803165
      0.10384684276256809 -0.021672028585230856 -0.048670215905878153
      -0.048245810223109274 0.046809612807589857 -0.09912359282154809
      -0.012732036118413337 0.043803845087544271 0.10332273715527246
      -0.024605338297618396 0.032211696412453389 -0.029163941119189535
      0.047137531404959437 0.0021958034315926927 -0.038579785743465392
      -0.076925419234218875 0.029662003118009751 0.010958020969561517
      -0.0047810019535136205 0.0010582817451555424 -0.0515924585173178
      -0.13609493427466429 0.039269911392854517 0.01647956707819646
      -0.071961165415719452 0.009376707619535225 -0.0012889990346854016
      0.1144775307997308 -0.10543835463978583 -0.13180527450982518
      -0.0077922596854428485 0.098656553825625562 -0.010764815805342906
      0.010700094512485717 -0.063775580704137941 0.0069630148153334258
      0.049916848216468773 0.077263990127300286 0.077812649444329599
      0.02859160445484742 -0.015884509845411125 0.0220201575891124
      -0.015054828055482059 -0.048407411413362585 0.065312150441952196
      0.05200427912309092 -0.040391403353094747 0.10333537103535169
      -0.016021371232944073 -0.0033935634474494907 -0.059706731154123241
      0.050114802848890798 0.057031171968121727 0.043983634117940998
      -0.031371522149085881 0.05901158325178698 -0.049696582602211201
      0.046215064527743085 -0.0061827367265986106 0.052381024677849636
      0.015881128165029765 0.069209907620931391 0.037109348557220152
      0.028473145305444071 -0.011869977370531287 -0.041835007245913207
      -0.013724891052289185 0.070215009447578386 -0.018740139569809477
      -0.044356076143949152 0.093977039368931745 0.0010557818477120739
      -0.026359774455684264 -0.13688390618429869 0.12338096030981086
      0.1037761692213866 -0.036806757805902972 -0.038919488018388314
      0.064424898680879042 -0.10431492648838997 0.12781536362771814
      0.059445268746955209 -0.011742943812367002 0.087531262247078481
      0.06608713190758983 0.041296925957539227 0.046525668374029369
      -0.052846798735520145 -0.064336139270689485 -0.038451647751650997
      0.081173974596236584 0.024835881840138446 0.019171565950375308
      0.012193048575097832 -0.028623276865749114 -0.050209018352005162
      -0.095340661786634792 -0.00062503653550609133
      -0.015881323112204217 0.042147758909286862 -0.0075976195392939089
      0.052229673942265541 -0.04168485282876707 0.016816653786111909
      -0.030628380387251696 -0.00443694815591283 0.050711595155638355
      0.094012956584648297 -0.050451142521028738 -0.033789526557783792
      0.0036151662686004088 -0.031345344964288986 -0.022903144088400225
      0.12345343332038414 0.05691848070397211 -0.049423520425370182
      0.066059626949607694 -0.0041676171941419753 0.030217833121668095
      -0.054642468567455894 0.10210420533110329 0.067489473679256035
      0.0029026091826684182 -0.067962147750297741 -0.0029416073613550563
      -0.041548985442674116 0.065057814832861896 0.052022963423576152
      -0.0044946868835679093 -0.012232078591378254
      -0.0064193226589332585 0.02990639398530184 -0.0083751895966270029
      0.033607975587455007 0.036595555458362419 0.036153564945481616
      0.027809278699253839 0.037199384346043016 -0.048212103198977466
      0.039707264120650919 0.033254770453475073 -0.0077243970697324455
      -0.07426287112049719 0.066636279847604091 0.025605395483808309
      0.045261824064250673 -0.077067024163142803 0.071848839602291284
      -0.084856917701472398 0.067609107077238842 0.0094217097281468053
      -0.075845291604765622 -0.052868158382218748 -0.14872129004810236
      0.051111672478992703 0.038451748748815254 0.07455816227818364
      0.04680237304217668 -0.0070442577941825383 -0.093357477656100626
      0.059379052606615218 0.091588442703392947 -0.12392186585144034
      0.0082998426662821874 -0.014093837051450552 0.080324641161711396
      -0.059327816081540863 -0.1354736292244002 0.021546062908179245
      0.13447417549828974 -0.091696292513604921 0.11333433843963107
      -0.057089103339527311 0.030983250901880619 -0.0010385069438173422
      0.072339472360086018 0.036268145353503978 -0.024334107345944708
      0.014635996543526656 -0.013097708844423073 -0.077232052949647245
      0.0059736684147554502 0.0040762055531115343 0.0033110608842477963
      0.014428807893782017 0.0015541701396665647 0.052898276007467743
      0.055589950952931018 -0.013509745807150296 0.062608072930516026
      0.047665500890554401 -0.044676353674833601 -0.089241336390307083
      0.049853582662117001 -0.0087113769540928705 0.0031907087698159081
      -0.0099344227055916685 0.026127784012077312 0.040551452530259713
      0.064616238057711495 0.0027589060112188217 0.019895456774798894
      -0.024603718495289837 -0.01472768619454155 0.067012436054885341
      0.072601998905947498 -0.048824319256647965 -0.11500992317496571
      0.10706675719586355 0.019632334979483575 0.064007293545142008
      -0.088284704461225202 0.073710503843232911 0.067319176381003973
      -0.014458926298966408 -0.12119829820748236 0.079831948678892664
      -0.018690973936876323 0.1102804116051225 -0.033643578628608756
      0.010597128303448536 0.070204968131982265 0.016997493183640917
      0.027972521051074666 0.052337266847344466 0.0084814801794144187
      -0.080917038051082801 0.06315259328837107 0.0048923795964194812
      0.043074160045469601 -0.02551315777191979 0.052949777028657809
      -0.05683882333548896 0.0097170408609068178 -0.10153165644584784
      0.0027980697002115062 0.023061247189050588 0.030941117149550855
      0.015599745410068576 -0.029792936836422916 -0.0070772852701965249
      0.080233929112171851 0.027146835537174584 -0.014581365188952993
      -0.013272999669575861 -0.033436656281447166 -0.046855620439296496
      0.046284285848695511 -0.015395124633099177 -0.062114127767599378
      0.00035784462274312569 -0.043727267671241833 0.031146394149958453
      -0.050230376364856208 0.054110927769948129 -0.035260694123739368
      0.051211615641679691 -0.041273700426653119 -0.024757036036679548
      -0.048479492257998975 0.034924624143336455 0.055054410300039727
      0.036446086745669085 4.802516315212289e-05 -0.033871455297139093
      0.058392506261428882 0.02416802361394817 0.029473123798712409
      0.061733116488243464 0.033754215911663547 -0.010589009211644757
      0.031343084683997907 0.045181688001397206 -0.052397911232059655
      -0.050588253930905144 -0.039027139054668099 -0.054203205937045071
      -0.047738720060363213 0.054448360522651867 0.035510064623174561
      -0.0027462701775195063 0.035597500503384942 -0.021675361036788975
      -0.03878603349820868 0.010673735635597455 -0.041469696104577437
      -0.016056647912468369 -0.070837723039684566 -0.021998244033838814
      -0.064691330805986269 -0.11334964155063791 -0.085768359278931297
      0.032264401794694197 0.044175547169106467 -0.049688948499156615
      0.076053926398168145 -0.027915292633547872 -0.064356771310703345
      0.047202949803938889 0.057079901596103613 -0.10902194675159292
      -0.058682009643272338 0.035166151076459026 0.049176864959218289
      -0.083073561011301117 -0.079679055461469445 -0.020378101552085491
      -0.0068653455078260383 0.0083107134934435299 0.12097515017938409
      -0.093503140474821056 0.051072148142050557 -0.0011795227143220556
      -0.0074010593602534631 -0.014621558592783459
      -0.0029900665984404148 0.051331853311633077 0.038178217959004467
      0.023051337850204568 0.052460080643021691 0.021457282170017283
      0.00475638460156615 0.032060739221492433 0.0012116121920722151
      -0.0041235316083863454 -0.051873032172519096 -0.06441027702110888
      0.024907036140609788 0.06796419663524074 -0.010672449457775599
      0.0036381725074245931 0.018729970998901172 0.020589798141841
      -0.062731826176422659 0.046826220577657209 -0.02119569329977471
      -0.007697798357766278 -0.0025472904842025559 0.038479938693059129
      -0.00099591607724737897 -0.035734834601800575 0.034342230405207015
      -0.051340878941639093 -0.021728206599945645 0.0019534555974157798
      0.023839233765958576 0.053733586351261929 -0.043900262903070267
      0.048679505010267687 -0.0028366924133619818 0.015455165883701731
      0.0077117232606305928 0.0035583417367112862 -0.0067356060370426258
      0.044337336348043418 0.0067860038175861642 0.041987461249775211
      -0.058113718710206395 0.011704118412868642 -0.05433795094234168
      -0.055619941709517826 0.055199937475739834 -0.03269909939199396
      0.046351406126441543 -0.024506492285621868 -0.012323979348513512
      0.0060722895326569002 0.025664763468089363 0.076685300713988228
      -0.021787240717074483 -0.019715756977674862 -0.010306949361443024
      -0.0086393032687725763 -0.041895102521176675 -0.039017077955029691
      0.066582805940554129 0.033355656463102797 0.025795180381312031
      0.040012930822048792 -0.016955008841470252 -0.018921582554359599
      -0.0026716221451258387 0.095370654341529262 0.10516855659944754
      -0.064945703866487042 -0.022021921400744469 0.043521444517285179
      -0.0061329673250492102 0.039356531491417629 0.093377449482536554
      0.008535652172948778 -0.023692360460111989 0.04806483705875407
      -0.059801071997405322 -0.0062423023608620641 -0.12078524425311042
      0.029692795749013123 0.054083689744376766 0.0014429627166567651
      -0.022277025332907416 0.0092376432923040423 -0.015463168279559448
      0.025641146658745402 0.029209960188018153 -0.039325334233130005
      0.012884651811180139 -0.042318577132588624 -0.020273086967393085
      0.040300567399460099 0.014042410437794662 0.019377863018824666
      0.010988579313100925 -0.0048011901029723124 0.0039399493638848215
      -0.035692237373818117 0.025596194725490375 0.050395026166948034
      0.03247096844349609 -0.046999874621323164 -0.031192994091210884
      -0.050615371504433834 0.0095256263505307769 0.0012568937486721766
      -0.047701896587195737 0.042428189082400078 -0.005985795525900544
      0.061275731583276059 -0.057000189957223606 0.0054237783679312451
      -0.055193204756818007 0.010009807006368408 -0.027670469375875258
      -0.046494468579378757 0.067959747509913099 -0.015316457189366514
      0.0062271227798871356 -0.065221830542421852 -0.0020460766422905224
      0.0164459613124412 -0.00015443886253902329 0.044383478353676099
      0.03399199146715802 0.014694161584568223 -0.018722936348138316
      0.072633693137048927 -0.022283651962012159 0.018550282180602087
      -0.024831010601539565 -0.009004604408060262
      -0.00036691229054419255 0.018576682464432354 -0.055799660106027209
      -0.051856357991369867 -0.0074761868566319469 -0.036580461421889254
      -0.062127320572582592 -0.0041812165175574437 0.0331751670550295
      -0.01541040964059685 -0.045287837176802723 0.018346972242863215
      -0.040669297338989982 -0.00067479692426089847
      -0.0050314770050385671 0.047387664903008671 -0.028269977903206542
      -0.0096259386973588882 -0.03933308444933304 -0.013805032299314771
      0.027634068916291152 -0.0042774240671317075 -0.0012117315703336726
      0.050807881582840025 -0.01092582170509728 0.056369968216637784
      0.078513584413854476 -0.0071562384783023176 0.037671308794675798
      0.024025051648432799 -0.10333457293424662 0.058224292706933183
      0.077843096010789495 0.017413339832210443 -0.10023679993501013
      0.030086411350676835 0.0079992884374480589 -0.0259827101264937
      -0.1844037689978868 0.11567761563434492 0.15687209229955432
      0.026640296032993623 -0.11260384519974506 0.023402784666175992
      -0.079299643637050776 0.083318382822745091 -0.050733545981051634
      -0.042217014360900702 0.003114853162943292 -0.034264940077282049
      0.025137139499611189 -0.061815824149985162 0.034284856748588811
      0.015103050993924316 0.037069245487101159 -0.030867634525550827
      0.0050543749870336019 0.037275106320038463 0.02308044923058359
      0.025924476393212301 -0.058103723114842958 -0.028803371230365415
      -0.034487473157462992 -0.028100417235387122 -0.0027966263334282199
      -0.05021083963710915 -5.7551547820064721e-05 0.031837811773974788
      -0.024981629413967019 -0.044204251030680874 0.04496093455094631
      0.021111663611513131 0.098648633120104606 -0.0060826920967788651
      0.033891525400300708 -0.013889482213116124 -0.019553711275797313
      -0.007296196943893796 0.11008836185570185 -0.033376214498159452
      -0.045372562621456052 0.0091520666198360995 -0.017424248686274218
      -0.0048227179085977801 -0.12153035818805838 -0.0089863726174374131
      -0.010758324694614308 -0.003904177492334101 -0.067631347233001987
      0.046992751643936743 -0.071516065043859531 0.061939051968398808
      -0.020593955334072996 -0.0059141228803219264 -0.051008209439509206
      -0.12211350434559527 0.034006569917568799 -0.020246997052713923
      0.040910683685398193 0.053174931875049063 -0.0017525485765854238
      -0.071334271802603141 -0.035194063181049021 0.08377154422768994
      -0.093610204850741521 -0.053877271294822837 -0.0053015084449054162
      0.11800583836275937 -0.056972539714990639 -0.1018020233698253
      -0.010031286756897155 0.070461483469173622 -0.094848393362244085
      0.040406773313526163 -0.051867367069063759 0.011251823845623145</_>
    <_>
      -0.86053570720299188 -0.20281279706784833 -0.32187258027774129
      0.49472745616503749 -0.54786678695053104 0.62382300050017703
      -0.26078517983983285 -0.44392622274224047 -0.067440989824641265
      0.026173565176116912 -0.72686284015947389 -0.66309247108291536
      0.62584052699282267 -0.014611997103606745 -0.09572597416786631
      -0.011399873692835549 -0.97224281835504711 0.25030566658048986
      0.7931413361221058 0.52291848283044096 0.63318396574876967
      -0.38701550099729526 -0.26431426636111005 0.62039720806987408
      0.9714783095819598 0.71953894748437508 -0.2331559619680578
      -0.002808702576630422 0.56251926658441054 -0.77284808034251118
      -0.93018470911284956 0.098450552467213154 -0.22702293989503494
      0.65338709683260432 0.69642241262961591 0.21845622148331961
      0.046383541198449424 -0.68458008510633717 0.14876388145543104
      0.60160312348456313 0.90901420287321344 -0.12509038495807981
      -0.3607914413195214 0.42856850352724557 -0.48253589356385768
      -0.40314385043247947 -0.27838860860433495 0.62517911879984311</_></weights></opencv_ml_ann_mlp>
</opencv_storage>
